digraph Tree {
node [shape=box, fontname="helvetica"] ;
edge [fontname="helvetica"] ;
0 [label="女性 <= 0.5\nentropy = 0.92\nsamples = 1050\nvalue = [698, 352]"] ;
1 [label="age <= 12.0\nentropy = 0.629\nsamples = 684\nvalue = [576, 108]"] ;
0 -> 1 [labeldistance=2.5, labelangle=45, headlabel="True"] ;
2 [label="pclass=3rd <= 0.5\nentropy = 0.755\nsamples = 23\nvalue = [5, 18]"] ;
1 -> 2 ;
3 [label="entropy = 0.0\nsamples = 14\nvalue = [0, 14]"] ;
2 -> 3 ;
4 [label="age <= 3.5\nentropy = 0.991\nsamples = 9\nvalue = [5, 4]"] ;
2 -> 4 ;
5 [label="entropy = 0.0\nsamples = 2\nvalue = [0, 2]"] ;
4 -> 5 ;
6 [label="age <= 7.5\nentropy = 0.863\nsamples = 7\nvalue = [5, 2]"] ;
4 -> 6 ;
7 [label="entropy = 0.0\nsamples = 3\nvalue = [3, 0]"] ;
6 -> 7 ;
8 [label="entropy = 1.0\nsamples = 4\nvalue = [2, 2]"] ;
6 -> 8 ;
9 [label="pclass=1st <= 0.5\nentropy = 0.574\nsamples = 661\nvalue = [571, 90]"] ;
1 -> 9 ;
10 [label="age <= 18.5\nentropy = 0.459\nsamples = 526\nvalue = [475, 51]"] ;
9 -> 10 ;
11 [label="entropy = 0.0\nsamples = 19\nvalue = [19, 0]"] ;
10 -> 11 ;
12 [label="age <= 45.5\nentropy = 0.471\nsamples = 507\nvalue = [456, 51]"] ;
10 -> 12 ;
13 [label="entropy = 0.481\nsamples = 491\nvalue = [440, 51]"] ;
12 -> 13 ;
14 [label="entropy = 0.0\nsamples = 16\nvalue = [16, 0]"] ;
12 -> 14 ;
15 [label="age <= 60.5\nentropy = 0.867\nsamples = 135\nvalue = [96, 39]"] ;
9 -> 15 ;
16 [label="age <= 17.5\nentropy = 0.895\nsamples = 125\nvalue = [86, 39]"] ;
15 -> 16 ;
17 [label="entropy = 0.0\nsamples = 1\nvalue = [0, 1]"] ;
16 -> 17 ;
18 [label="entropy = 0.889\nsamples = 124\nvalue = [86, 38]"] ;
16 -> 18 ;
19 [label="entropy = 0.0\nsamples = 10\nvalue = [10, 0]"] ;
15 -> 19 ;
20 [label="pclass=3rd <= 0.5\nentropy = 0.918\nsamples = 366\nvalue = [122, 244]"] ;
0 -> 20 [labeldistance=2.5, labelangle=-45, headlabel="False"] ;
21 [label="age <= 38.5\nentropy = 0.37\nsamples = 197\nvalue = [14, 183]"] ;
20 -> 21 ;
22 [label="age <= 17.5\nentropy = 0.429\nsamples = 148\nvalue = [13, 135]"] ;
21 -> 22 ;
23 [label="entropy = 0.0\nsamples = 16\nvalue = [0, 16]"] ;
22 -> 23 ;
24 [label="age <= 37.5\nentropy = 0.464\nsamples = 132\nvalue = [13, 119]"] ;
22 -> 24 ;
25 [label="entropy = 0.444\nsamples = 130\nvalue = [12, 118]"] ;
24 -> 25 ;
26 [label="entropy = 1.0\nsamples = 2\nvalue = [1, 1]"] ;
24 -> 26 ;
27 [label="age <= 49.5\nentropy = 0.144\nsamples = 49\nvalue = [1, 48]"] ;
21 -> 27 ;
28 [label="entropy = 0.0\nsamples = 26\nvalue = [0, 26]"] ;
27 -> 28 ;
29 [label="age <= 50.5\nentropy = 0.258\nsamples = 23\nvalue = [1, 22]"] ;
27 -> 29 ;
30 [label="entropy = 0.65\nsamples = 6\nvalue = [1, 5]"] ;
29 -> 30 ;
31 [label="entropy = 0.0\nsamples = 17\nvalue = [0, 17]"] ;
29 -> 31 ;
32 [label="age <= 19.5\nentropy = 0.943\nsamples = 169\nvalue = [108, 61]"] ;
20 -> 32 ;
33 [label="age <= 13.0\nentropy = 1.0\nsamples = 22\nvalue = [11, 11]"] ;
32 -> 33 ;
34 [label="age <= 5.5\nentropy = 0.764\nsamples = 9\nvalue = [7, 2]"] ;
33 -> 34 ;
35 [label="entropy = 0.918\nsamples = 3\nvalue = [1, 2]"] ;
34 -> 35 ;
36 [label="entropy = 0.0\nsamples = 6\nvalue = [6, 0]"] ;
34 -> 36 ;
37 [label="age <= 15.5\nentropy = 0.89\nsamples = 13\nvalue = [4, 9]"] ;
33 -> 37 ;
38 [label="entropy = 0.0\nsamples = 1\nvalue = [0, 1]"] ;
37 -> 38 ;
39 [label="entropy = 0.918\nsamples = 12\nvalue = [4, 8]"] ;
37 -> 39 ;
40 [label="age <= 21.5\nentropy = 0.925\nsamples = 147\nvalue = [97, 50]"] ;
32 -> 40 ;
41 [label="entropy = 0.0\nsamples = 3\nvalue = [3, 0]"] ;
40 -> 41 ;
42 [label="age <= 23.5\nentropy = 0.932\nsamples = 144\nvalue = [94, 50]"] ;
40 -> 42 ;
43 [label="entropy = 0.918\nsamples = 3\nvalue = [1, 2]"] ;
42 -> 43 ;
44 [label="entropy = 0.925\nsamples = 141\nvalue = [93, 48]"] ;
42 -> 44 ;
}